{"learner":{"attributes":{},"feature_names":[],"feature_types":[],"gradient_booster":{"model":{"gbtree_model_param":{"num_parallel_tree":"1","num_trees":"2"},"iteration_indptr":[0,1,2],"tree_info":[0,0],"trees":[{"base_weights":[1.0621414E-1,1.322622E0,-1.0904613E0,1.4692448E-1,-2.3468954E-2,-1.3299601E0,9.9920206E-2,-1.4258218E-1,-1.0571997E-2],"categories":[],"categories_nodes":[],"categories_segments":[],"categories_sizes":[],"default_left":[0,0,0,0,0,0,0,0,0],"id":0,"left_children":[1,3,5,-1,-1,7,-1,-1,-1],"loss_changes":[4.5416214E1,3.8687496E0,9.2244625E0,0E0,0E0,1.5606937E0,0E0,0E0,0E0],"parents":[2147483647,0,0,1,1,2,2,5,5],"right_children":[2,4,6,-1,-1,8,-1,-1,-1],"split_conditions":[5.4936314E-1,6.73253E-1,5.4413183E-3,1.4692448E-1,-2.3468954E-2,6.16141E-3,9.9920206E-2,-1.4258218E-1,-1.0571997E-2],"split_indices":[1875,630,471,0,0,67,0,0,0],"split_type":[0,0,0,0,0,0,0,0,0],"sum_hessian":[2.9209246E1,1.4433004E1,1.4776241E1,1.3242735E1,1.1902695E0,1.3583027E1,1.1932139E0,1.2443968E1,1.1390591E0],"tree_param":{"num_deleted":"0","num_feature":"3584","num_nodes":"9","size_leaf_vector":"1"}},{"base_weights":[2.4124142E-3,1.2769306E0,-9.057421E-1,1.3779742E-1,1.2269886E-2,-1.3888834E-1,3.742162E-1,1.18597366E-1,-7.417731E-2],"categories":[],"categories_nodes":[],"categories_segments":[],"categories_sizes":[],"default_left":[0,0,0,0,0,0,0,0,0],"id":1,"left_children":[1,3,5,-1,-1,-1,7,-1,-1],"loss_changes":[3.3861347E1,1.2504501E0,1.1084643E1,0E0,0E0,0E0,5.834462E0,0E0,0E0],"parents":[2147483647,0,0,1,1,2,2,6,6],"right_children":[2,4,6,-1,-1,-1,8,-1,-1],"split_conditions":[1.7551781E-1,2.999349E-1,3.882338E-1,1.3779742E-1,1.2269886E-2,-1.3888834E-1,2.2372077E-1,1.18597366E-1,-7.417731E-2],"split_indices":[158,170,3355,0,0,0,1693,0,0],"split_type":[0,0,0,0,0,0,0,0,0],"sum_hessian":[2.725566E1,1.117143E1,1.6084229E1,1.0093942E1,1.0774877E0,1.1614895E1,4.469334E0,2.5510325E0,1.9183017E0],"tree_param":{"num_deleted":"0","num_feature":"3584","num_nodes":"9","size_leaf_vector":"1"}}]},"name":"gbtree"},"learner_model_param":{"base_score":"4.9375E-1","boost_from_average":"1","num_class":"0","num_feature":"3584","num_target":"1"},"objective":{"name":"binary:logistic","reg_loss_param":{"scale_pos_weight":"1"}}},"version":[3,0,0]}