{"learner":{"attributes":{},"feature_names":[],"feature_types":[],"gradient_booster":{"model":{"gbtree_model_param":{"num_parallel_tree":"1","num_trees":"2"},"iteration_indptr":[0,1,2],"tree_info":[0,0],"trees":[{"base_weights":[-4.582833E-2,1.275265E0,-1.2285299E0,-5.2467465E-2,1.5605671E0,-1.5537438E-1,6.053012E-1,5.1687684E-2,1.619073E-1,1.1116476E-1,-1.7654536E-2],"categories":[],"categories_nodes":[],"categories_segments":[],"categories_sizes":[],"default_left":[0,0,0,0,0,0,0,0,0,0,0],"id":0,"left_children":[1,3,5,-1,7,-1,9,-1,-1,-1,-1],"loss_changes":[5.3189228E1,9.085144E0,1.1640892E1,0E0,2.6943207E-2,0E0,1.551066E0,0E0,0E0,0E0,0E0],"parents":[2147483647,0,0,1,1,2,2,4,4,6,6],"right_children":[2,4,6,-1,8,-1,10,-1,-1,-1,-1],"split_conditions":[5.4936314E-1,-3.224349E-2,2.7736562E-1,-5.2467465E-2,3.3489908E-3,-1.5537438E-1,7.552267E-4,5.1687684E-2,1.619073E-1,1.1116476E-1,-1.7654536E-2],"split_indices":[1875,2350,2973,0,1,0,12,0,0,0,0],"split_type":[0,0,0,0,0,0,0,0,0,0,0],"sum_hessian":[3.2039276E1,1.5097219E1,1.6942057E1,1.9508033E0,1.3146416E1,1.4519828E1,2.4222295E0,1.219858E0,1.1926558E1,1.2141123E0,1.2081174E0],"tree_param":{"num_deleted":"0","num_feature":"3584","num_nodes":"11","size_leaf_vector":"1"}},{"base_weights":[-4.9922194E-2,1.0391992E0,-1.3890903E0,-7.790585E-1,1.5376566E-1,-1.500933E-1,-5.479756E-3,-1.2240845E-1,2.6204681E-2],"categories":[],"categories_nodes":[],"categories_segments":[],"categories_sizes":[],"default_left":[0,0,0,0,0,0,0,0,0],"id":1,"left_children":[1,3,5,7,-1,-1,-1,-1,-1],"loss_changes":[4.8368156E1,1.7797178E1,2.1350136E0,2.454029E0,0E0,0E0,0E0,0E0,0E0],"parents":[2147483647,0,0,1,1,2,2,3,3],"right_children":[2,4,6,8,-1,-1,-1,-1,-1],"split_conditions":[6.4992434E-1,3.7078974E-1,3.7174027E-3,2.9376512E-3,1.5376566E-1,-1.500933E-1,-5.479756E-3,-1.2240845E-1,2.6204681E-2],"split_indices":[1875,1819,114,28,0,0,0,0,0],"split_type":[0,0,0,0,0,0,0,0,0],"sum_hessian":[3.1172836E1,1.7314919E1,1.3857917E1,3.604305E0,1.3710613E1,1.2670927E1,1.1869898E0,2.4018617E0,1.2024434E0],"tree_param":{"num_deleted":"0","num_feature":"3584","num_nodes":"9","size_leaf_vector":"1"}}]},"name":"gbtree"},"learner_model_param":{"base_score":"4.9375E-1","boost_from_average":"1","num_class":"0","num_feature":"3584","num_target":"1"},"objective":{"name":"binary:logistic","reg_loss_param":{"scale_pos_weight":"1"}}},"version":[3,0,0]}